result.1,result.2,result.3,result.4,result.5,result.6,result.7,result.8,result.9,result.10,result.11,result.12,result.13,result.14,result.15,result.16,result.17,result.18,result.19,result.20,result.21,result.22,result.23,result.24,result.25,result.26,result.27,result.28,result.29,result.30,result.31,result.32,result.33,result.34,result.35,result.36,result.37,result.38,result.39,result.40,result.41,result.42,result.43,result.44,result.45,result.46,result.47,result.48,result.49,result.50,result.51,result.52,result.53,result.54,result.55,result.56,result.57,result.58,result.59,result.60,result.61,result.62,result.63,result.64,result.65,result.66,result.67,result.68,result.69,result.70,result.71,result.72,result.73,result.74,result.75,result.76,result.77,result.78,result.79,result.80,result.81,result.82,result.83,result.84,result.85,result.86,result.87,result.88,result.89,result.90,result.91,result.92,result.93,result.94,result.95,result.96,result.97,result.98,result.99,result.100,result.101,result.102,result.103,result.104,result.105,result.106,result.107,result.108,result.109,result.110,result.111,result.112,result.113,result.114,result.115,result.116,result.117,result.118,result.119,result.120,result.121,result.122,result.123,result.124,result.125,result.126,result.127,result.128,result.129,result.130,result.131,result.132,result.133,result.134,result.135,result.136,result.137,result.138,result.139,result.140,result.141,result.142,result.143,result.144,result.145,result.146,result.147,result.148,result.149,result.150,result.151,result.152,result.153,result.154,result.155,result.156,result.157,result.158,result.159,result.160,result.161,result.162,result.163,result.164,result.165,result.166,result.167,result.168,result.169,result.170,result.171,result.172,result.173,result.174,result.175,result.176,result.177,result.178,result.179,result.180,result.181,result.182,result.183,result.184,result.185,result.186,result.187,result.188,result.189,result.190,result.191,result.192,result.193,result.194,result.195,result.196,result.197,result.198,result.199,result.200,result.201,result.202,result.203,result.204,result.205,result.206,result.207,result.208,result.209,result.210,result.211,result.212,result.213,result.214,result.215,result.216,result.217,result.218,result.219,result.220,result.221,result.222,result.223,result.224,result.225,result.226,result.227,result.228,result.229,result.230,result.231,result.232,result.233,result.234,result.235,result.236,result.237,result.238,result.239,result.240,result.241,result.242,result.243,result.244,result.245,result.246,result.247,result.248,result.249,result.250,result.251,result.252,result.253,result.254,result.255,result.256,result.257,result.258,result.259,result.260,result.261,result.262,result.263,result.264,result.265,result.266,result.267,result.268,result.269,result.270,result.271,result.272,result.273,result.274,result.275,result.276,result.277,result.278,result.279,result.280,result.281,result.282,result.283,result.284,result.285,result.286,result.287,result.288,result.289,result.290,result.291,result.292,result.293,result.294,result.295,result.296,result.297,result.298,result.299,result.300
0.11586268745999728,0.11586268745999728,0.11586268745999728,0.11586268745999728,0.11586268745999728,0.11586268745999728,0.11586268745999728,0.11586268745999728,0.11586268745999728,0.11586268745999728,0.11586268745999728,0.11586268745999728,0.11586268745999728,0.11586268745999728,0.11586268745999728,0.11586268745999728,0.11586268745999728,0.11586268745999728,0.11586268745999728,0.11586268745999728,0.11586268745999728,0.11586268745999728,0.11586268745999728,0.11586268745999728,0.11586268745999728,0.11586268745999728,0.11586268745999728,0.11586268745999728,0.11586268745999728,0.11586268745999728,0.11586268745999728,0.11586268745999728,0.11586268745999728,0.11586268745999728,0.11586268745999728,0.11586268745999728,0.11586268745999728,0.11586268745999728,0.11586268745999728,0.11586268745999728,0.11586268745999728,0.11586268745999728,0.11586268745999728,0.11586268745999728,0.11586268745999728,0.11586268745999728,0.11586268745999728,0.11586268745999728,0.11586268745999728,0.11586268745999728,0.11586268745999728,0.11586268745999728,0.11586268745999728,0.11586268745999728,0.11586268745999728,0.11586268745999728,0.11586268745999728,0.11586268745999728,0.11586268745999728,0.11586268745999728,0.11586268745999728,0.11586268745999728,0.11586268745999728,0.11586268745999728,0.11586268745999728,0.11586268745999728,0.11586268745999728,0.11586268745999728,0.11586268745999728,0.11586268745999728,0.11586268745999728,0.11586268745999728,0.11586268745999728,0.11586268745999728,0.11586268745999728,0.11586268745999728,0.11586268745999728,0.11586268745999728,0.11586268745999728,0.11586268745999728,0.11586268745999728,0.11586268745999728,0.11586268745999728,0.11586268745999728,0.11586268745999728,0.11586268745999728,0.11586268745999728,0.11586268745999728,0.11586268745999728,0.11586268745999728,0.11586268745999728,0.11586268745999728,0.11586268745999728,0.11586268745999728,0.11586268745999728,0.11586268745999728,0.11586268745999728,0.11586268745999728,0.11586268745999728,0.11586268745999728,-0.6900577423538463,-0.6900577423538463,-0.6900577423538463,-0.6900577423538463,-0.6900577423538463,-0.6900577423538463,-0.6900577423538463,-0.6900577423538463,-0.6900577423538463,-0.6900577423538463,-0.6900577423538463,-0.6900577423538463,-0.6900577423538463,-0.6900577423538463,-0.6900577423538463,-0.6900577423538463,-0.6900577423538463,-0.6900577423538463,-0.6900577423538463,-0.6900577423538463,-0.6900577423538463,-0.6900577423538463,-0.6900577423538463,-0.6900577423538463,-0.6900577423538463,-0.6900577423538463,-0.6900577423538463,-0.6900577423538463,-0.6900577423538463,-0.6900577423538463,-0.6900577423538463,-0.6900577423538463,-0.6900577423538463,-0.6900577423538463,-0.6900577423538463,-0.6900577423538463,-0.6900577423538463,-0.6900577423538463,-0.6900577423538463,-0.6900577423538463,-0.6900577423538463,-0.6900577423538463,-0.6900577423538463,-0.6900577423538463,-0.6900577423538463,-0.6900577423538463,-0.6900577423538463,-0.6900577423538463,-0.6900577423538463,-0.6900577423538463,-0.6900577423538463,-0.6900577423538463,-0.6900577423538463,-0.6900577423538463,-0.6900577423538463,-0.6900577423538463,-0.6900577423538463,-0.6900577423538463,-0.6900577423538463,-0.6900577423538463,-0.6900577423538463,-0.6900577423538463,-0.6900577423538463,-0.6900577423538463,-0.6900577423538463,-0.6900577423538463,-0.6900577423538463,-0.6900577423538463,-0.6900577423538463,-0.6900577423538463,-0.6900577423538463,-0.6900577423538463,-0.6900577423538463,-0.6900577423538463,-0.6900577423538463,-0.6900577423538463,-0.6900577423538463,-0.6900577423538463,-0.6900577423538463,-0.6900577423538463,-0.6900577423538463,-0.6900577423538463,-0.6900577423538463,-0.6900577423538463,-0.6900577423538463,-0.6900577423538463,-0.6900577423538463,-0.6900577423538463,-0.6900577423538463,-0.6900577423538463,-0.6900577423538463,-0.6900577423538463,-0.6900577423538463,-0.6900577423538463,-0.6900577423538463,-0.6900577423538463,-0.6900577423538463,-0.6900577423538463,-0.6900577423538463,-0.6900577423538463,-0.42841962814468726,-0.42841962814468726,-0.42841962814468726,-0.42841962814468726,-0.42841962814468726,-0.42841962814468726,-0.42841962814468726,-0.42841962814468726,-0.42841962814468726,-0.42841962814468726,-0.42841962814468726,-0.42841962814468726,-0.42841962814468726,-0.42841962814468726,-0.42841962814468726,-0.42841962814468726,-0.42841962814468726,-0.42841962814468726,-0.42841962814468726,-0.42841962814468726,-0.42841962814468726,-0.42841962814468726,-0.42841962814468726,-0.42841962814468726,-0.42841962814468726,-0.42841962814468726,-0.42841962814468726,-0.42841962814468726,-0.42841962814468726,-0.42841962814468726,-0.42841962814468726,-0.42841962814468726,-0.42841962814468726,-0.42841962814468726,-0.42841962814468726,-0.42841962814468726,-0.42841962814468726,-0.42841962814468726,-0.42841962814468726,-0.42841962814468726,-0.42841962814468726,-0.42841962814468726,-0.42841962814468726,-0.42841962814468726,-0.42841962814468726,-0.42841962814468726,-0.42841962814468726,-0.42841962814468726,-0.42841962814468726,-0.42841962814468726,-0.42841962814468726,-0.42841962814468726,-0.42841962814468726,-0.42841962814468726,-0.42841962814468726,-0.42841962814468726,-0.42841962814468726,-0.42841962814468726,-0.42841962814468726,-0.42841962814468726,-0.42841962814468726,-0.42841962814468726,-0.42841962814468726,-0.42841962814468726,-0.42841962814468726,-0.42841962814468726,-0.42841962814468726,-0.42841962814468726,-0.42841962814468726,-0.42841962814468726,-0.42841962814468726,-0.42841962814468726,-0.42841962814468726,-0.42841962814468726,-0.42841962814468726,-0.42841962814468726,-0.42841962814468726,-0.42841962814468726,-0.42841962814468726,-0.42841962814468726,-0.42841962814468726,-0.42841962814468726,-0.42841962814468726,-0.42841962814468726,-0.42841962814468726,-0.42841962814468726,-0.42841962814468726,-0.42841962814468726,-0.42841962814468726,-0.42841962814468726,-0.42841962814468726,-0.42841962814468726,-0.42841962814468726,-0.42841962814468726,-0.42841962814468726,-0.42841962814468726,-0.42841962814468726,-0.42841962814468726,-0.42841962814468726,-0.42841962814468726
0.08947205904961847,0.09137856502457736,0.09662246890980686,0.09751042470248353,0.09630535608885782,0.09962316497566004,0.09641299947821838,0.09285382125415798,0.09380882294788351,0.09775611952794638,0.09248975863982131,0.0867240011078689,0.09679706905151654,0.08682555445855522,0.09414542435826037,0.09222230116069438,0.09220353739982172,0.09334961364813031,0.09236393054167055,0.09529213224840793,0.08790192585230605,0.0964780182676608,0.09368328155553639,0.10163545561320655,0.09726868183987904,0.09502761692367503,0.09580402997818549,0.09534786649595955,0.09523887411924215,0.09804977469967284,0.08865995440106025,0.0976528054891469,0.08085014943908315,0.09588855734124045,0.09485089961759924,0.09571441635838084,0.09738962689169153,0.08760736285367382,0.09544836271650059,0.0977343250536329,0.09300826067297666,0.0893238511029543,0.094539655719264,0.09659228918168239,0.08912150690239835,0.09237392504332469,0.0887229020421605,0.09423368322461848,0.08742837521301337,0.0906635654242883,0.09841905881529556,0.09510639542421487,0.09292322592583348,0.09095009375242619,0.08521498861498476,0.09536808964977947,0.0853833261592476,0.09102851505377539,0.09751492791319455,0.0900915239326365,0.09093987031870089,0.09502100381309202,0.09181548008899387,0.09824496836747827,0.09334405314464887,0.09839160251987358,0.09131556686558648,0.1020116888681466,0.09787286353811171,0.0896623904000261,0.09202735787318189,0.0825576928621654,0.0950340994040462,0.09373721541647986,0.08496583037206631,0.08770433154813244,0.10005726234032998,0.09210848954498853,0.09693197466728028,0.08635231721312932,0.09406139596247691,0.09617208666310122,0.09072795703415255,0.09105795297006614,0.09537698173472962,0.08632000187257832,0.09044925551453795,0.09526841574394732,0.0965223481369445,0.08529485041600272,0.08812059794586638,0.09168812619249468,0.09092517593492341,0.09527172891650214,0.09211353233859003,0.09320808130075146,0.08381875289978227,0.08592207915882129,0.09145847217217906,0.08971676508863854,-0.24574323051876906,-0.2601560849100729,-0.2470403598215754,-0.25421413016678257,-0.27020777095231663,-0.2637227018166972,-0.24507749867640316,-0.2411547396141205,-0.25543495315743653,-0.25997071860000476,-0.25083578552521585,-0.25535920606245266,-0.2650023443998536,-0.25108449222906337,-0.27464726582139537,-0.26811218262949715,-0.2560895672091754,-0.25687220003606326,-0.25778533282077964,-0.2544697387630799,-0.25666758942649276,-0.2579812718528712,-0.2590786541784268,-0.2650375823057506,-0.25479981700357734,-0.2632150457766221,-0.2597278018784759,-0.2600428888226693,-0.25597233216734944,-0.26335091224306423,-0.24786569692425045,-0.2466326700238717,-0.2563880763311435,-0.25838524624698345,-0.2570587052127812,-0.2709341836547375,-0.2582468435906272,-0.25754541000377085,-0.2633875634424889,-0.2640409094880119,-0.2508206166975678,-0.2587366545085194,-0.2540526774220861,-0.2574929180084661,-0.26532274712691034,-0.25825757758877166,-0.2545480997565523,-0.2610188737072656,-0.2609808376529147,-0.2630548409064339,-0.2512921983942148,-0.24370674831326355,-0.25562542915431735,-0.2668919031456435,-0.2514926805285588,-0.2611880282316099,-0.2571116861155556,-0.24399381934185135,-0.2572140837321212,-0.2520726473612613,-0.2640538027954481,-0.25890814532502066,-0.2608134269331191,-0.26494829197456965,-0.2615691140950031,-0.25643735132037077,-0.27730858655788965,-0.2601831176641411,-0.2511928675680786,-0.2628931802088182,-0.26843571055745585,-0.2501173391199819,-0.2614246225791547,-0.2581054050695714,-0.26348113438269605,-0.2501195780274874,-0.2596826429293804,-0.2492795678245734,-0.2678818303470186,-0.2603416693000229,-0.2696540127207707,-0.2576367370311442,-0.252625860109111,-0.25524940378462346,-0.26047740734808317,-0.2656264274870938,-0.25813788921215824,-0.2579491477465754,-0.2455970012072457,-0.26549054165134744,-0.2730379529143021,-0.26088583586226805,-0.25696030035715567,-0.24785848158088417,-0.2629162460551062,-0.25153199638728363,-0.2638967241883961,-0.2532333310493428,-0.2675562556461674,-0.2610381518044724,-0.24759705315982644,-0.24905262018980817,-0.26540601884503945,-0.2522270104894217,-0.25679876717604444,-0.2520509640949859,-0.2568732537711055,-0.25538476664792803,-0.25626915283830654,-0.25886068727516565,-0.2611442057901104,-0.2565473709314677,-0.26404952653159786,-0.2591174503345073,-0.2634538499405746,-0.2593472705079817,-0.25860847425956374,-0.26218817648552495,-0.2628961191954559,-0.26642762083892696,-0.25751835286005276,-0.2562949128445951,-0.2576518879397872,-0.2600937441688655,-0.262407001751842,-0.2494977167224841,-0.25689372809943395,-0.25836687086799415,-0.25751125773905514,-0.26110208112169847,-0.2542218650378705,-0.2610519332301891,-0.26047397522914356,-0.26143929584463066,-0.252760725476571,-0.25758000388784225,-0.26393944176697415,-0.25237207051780297,-0.2627193160008813,-0.25824255784754396,-0.2545326716839765,-0.2527804233144471,-0.25751731207546186,-0.2558282110386969,-0.2569371519141511,-0.25916401172912434,-0.2507837876987902,-0.2589519920259385,-0.25655674047348787,-0.2611795318839138,-0.2602024880446296,-0.2577685614800619,-0.2605208986637114,-0.25015046766958565,-0.2506296404551223,-0.2618057814099018,-0.2519250689255515,-0.2513032823016054,-0.2626050294874295,-0.25292501110006194,-0.2535644549245383,-0.25122450786317846,-0.2510791089540839,-0.2572916125529192,-0.25616629339565905,-0.26436501502911963,-0.2516353895656183,-0.2576954338846035,-0.2656429012084886,-0.25820984349810483,-0.26431415166653327,-0.26759695579801374,-0.26050682096234407,-0.2553051299766933,-0.2636494712218404,-0.2591497072065491,-0.25816916238260734,-0.26138470561291327,-0.25242056144974456,-0.2587307136171867,-0.2511155107261316,-0.25789009044878025,-0.257268658001654,-0.2580338691673772,-0.26104815805176496,-0.2623002198551013,-0.2549341941462224,-0.2637368414118523,-0.2608063289805822,-0.2571944882793283,-0.2568774165927652,-0.25771996009542364,-0.2630863771612286,-0.25212014988867915,-0.26229945427773554,-0.26034686692552084,-0.2593108201451117,-0.2598680123435234,-0.258347475950919,-0.2517841375544245
0.08682995498379986,0.0840869721329452,0.08980912099091862,0.09496790827982543,0.09201562182129024,0.08938503443465873,0.08952596555361424,0.08569315041789792,0.08903245817000353,0.08429288759270348,0.08763582055094128,0.08345310614511621,0.09333163193969288,0.08303213188000472,0.0868507394291849,0.09321399415804862,0.08227587815543536,0.08881822168019214,0.09057033605447838,0.09560718580178272,0.08482697657092961,0.09073269148790708,0.08897351146844613,0.0992056734957849,0.09622716109544521,0.09027865129325137,0.09335319702991426,0.08754795842667198,0.08924502332588245,0.09915414228974223,0.08420277398988757,0.09666614972264545,0.07674275444395234,0.09294774845104148,0.08872296346044906,0.09219629722385102,0.0895538081355052,0.08349714573568616,0.09062115234820353,0.09403332478615979,0.08430608393111416,0.08329896781935665,0.09605186758354656,0.09473633418577591,0.08614930403833435,0.08759802774894722,0.08334251563874127,0.09121497018619072,0.08347679764734561,0.09000177897502513,0.09573394083339828,0.0929260781626264,0.08566218896822027,0.08665328353684998,0.08032005486513423,0.09635105859093127,0.08558220630404084,0.08954976708473011,0.0925139112032526,0.09227689057037025,0.0863029674891293,0.09062300623809447,0.0874569091620016,0.09340653852672706,0.08934927123835136,0.09456744762613455,0.08894477688753263,0.09837906532268023,0.09401390061798068,0.08520148265492908,0.08609629070812128,0.08412674672827866,0.08885012937926308,0.08498418346845803,0.08603368987467233,0.08215953814311028,0.09023633500340641,0.08667001360488241,0.09147320800347611,0.08663230484198328,0.08746627343209638,0.08901709772039215,0.0894231799294131,0.08505222229575615,0.08904446654609466,0.07538581848103929,0.08369057241819419,0.09063868231961339,0.09285187973877959,0.08461517078348929,0.0833309164605898,0.08318503141047037,0.08796908824013554,0.08959308946755758,0.0868409662215095,0.08869807595783338,0.07713166508088108,0.08041233942504585,0.08825445833099514,0.08429826490644482,-0.2741153931087142,-0.2839830163727419,-0.27460199299601773,-0.282051359541259,-0.2972417634640733,-0.29680067508607605,-0.26801386491122337,-0.261228265003846,-0.2846936804291933,-0.2902174211881185,-0.26915846591153847,-0.2767101654703456,-0.2961455388840179,-0.27189465563412907,-0.29960388756283685,-0.2946209335703074,-0.27762719859183976,-0.2785640903376818,-0.28111068333497496,-0.2779694916777761,-0.28728548321588027,-0.28466721614463125,-0.2838734345685985,-0.2849303352466942,-0.2832460079485994,-0.28814325402622043,-0.2851836687464021,-0.2865713046024527,-0.28215800129054136,-0.29484974416279036,-0.2691870963730965,-0.27398215675883975,-0.2797606017370742,-0.2887733793948795,-0.2871508514531303,-0.3020141666124876,-0.282724927759714,-0.2828034033987564,-0.28931234984091386,-0.29087941037934645,-0.27917953883436875,-0.2852226126371197,-0.2834716511533451,-0.28644696033201517,-0.2930953606159077,-0.2798987047671958,-0.27547133707235855,-0.2861684712601111,-0.2831211267025711,-0.28958729915258274,-0.2759774025346438,-0.26564574222652376,-0.28354696229308496,-0.29481076692900593,-0.27464737602290856,-0.2892604590815558,-0.2836780738843372,-0.265860681674996,-0.286151822916349,-0.27472923764430035,-0.28946323856289,-0.28236429833254184,-0.2820127023842456,-0.29910317008120774,-0.2878270322398344,-0.2842319140279983,-0.304474702501708,-0.2882051622883863,-0.2774625545910701,-0.28536000266780087,-0.2932434832691429,-0.275997888420106,-0.2908711095816275,-0.28296206885218184,-0.2782272278258015,-0.27494348889732684,-0.2920599481852587,-0.2727846218467334,-0.2919133665716025,-0.29072208956056506,-0.2931937405397089,-0.2856613467980143,-0.2735619487192121,-0.280869738202321,-0.28916234940373764,-0.29789748586120074,-0.28161535646108016,-0.2715737779527938,-0.2710675670455367,-0.2908114742973257,-0.30215213423420434,-0.2850156363814089,-0.2855038569005505,-0.274808071929909,-0.29392264276651714,-0.2820370093750937,-0.28811101198293826,-0.27874140566364186,-0.29588841214510886,-0.28353440848853545,-0.20489838624032347,-0.20387927988397342,-0.218161103247899,-0.22133863231783543,-0.21033777423229202,-0.2106989722591347,-0.20649272958329415,-0.21716661364972895,-0.2210894429791871,-0.22834303825282182,-0.21806728194149036,-0.2151085644044385,-0.2280987450469617,-0.2197672806085741,-0.2131450659336269,-0.21961018124006176,-0.21728971198125496,-0.21631705981649632,-0.22231925608037875,-0.22872753044347865,-0.21268742203665528,-0.22079102327255337,-0.22465085236051457,-0.2164621465021599,-0.22279314773112127,-0.20520283746253146,-0.212834123251217,-0.21848237371890802,-0.21638514134988096,-0.2210062022586239,-0.20599263823800562,-0.22308296918487297,-0.21847122378030553,-0.21689436371489476,-0.21237125974441343,-0.22067750370651104,-0.22353215758610387,-0.20307256516723834,-0.22896910503169116,-0.2234172421336362,-0.21244539052677966,-0.19895762004763382,-0.22204859824787193,-0.2129863752291084,-0.20870749660389015,-0.21961900331460343,-0.20940923556253907,-0.21497187463986536,-0.2097104458977445,-0.2232500915250863,-0.21872971704268804,-0.21426532934590847,-0.22454485726168283,-0.21107618559756694,-0.19785193996228084,-0.22075751322345324,-0.21153577549571168,-0.20185664210946289,-0.22556916618535847,-0.20717912055735896,-0.20590566694259496,-0.19518960897494994,-0.21746593381429535,-0.22152004751889998,-0.2186211065587261,-0.22259675827227113,-0.2080522283901926,-0.21965704450447998,-0.2317806005176331,-0.22023899255149346,-0.23196613618838643,-0.22619429656693513,-0.22198760517132482,-0.2212113475802678,-0.21947106513595507,-0.21170558038048262,-0.21832828283873418,-0.21807635680531687,-0.2025839738571409,-0.21784595693586686,-0.19821934684366146,-0.22278698029587513,-0.2204346292104788,-0.21359773105885455,-0.22006628065118042,-0.2211280998611538,-0.2164196828245252,-0.22264052519325978,-0.2271754201626033,-0.21556276487815743,-0.2124043356945885,-0.2166353771473601,-0.22591866109884196,-0.20429076021100426,-0.21822688011270805,-0.2260529250140218,-0.22413787893992573,-0.22169582093631615,-0.21583739206218333,-0.20829262908409524
